digraph Tree {
node [shape=box] ;
0 [label="X[4] <= 0.5\nentropy = 0.996\nsamples = 1957\nvalue = [1053, 904]"] ;
1 [label="X[6] <= 46.5\nentropy = 0.967\nsamples = 1484\nvalue = [585, 899]"] ;
0 -> 1 [labeldistance=2.5, labelangle=45, headlabel="True"] ;
2 [label="X[7] <= 58.5\nentropy = 0.467\nsamples = 633\nvalue = [63, 570]"] ;
1 -> 2 ;
3 [label="X[5] <= 3.5\nentropy = 0.972\nsamples = 102\nvalue = [41, 61]"] ;
2 -> 3 ;
4 [label="entropy = 0.779\nsamples = 52\nvalue = [12, 40]"] ;
3 -> 4 ;
5 [label="entropy = 0.981\nsamples = 50\nvalue = [29, 21]"] ;
3 -> 5 ;
6 [label="X[6] <= 6.5\nentropy = 0.249\nsamples = 531\nvalue = [22, 509]"] ;
2 -> 6 ;
7 [label="X[5] <= 265.0\nentropy = 0.138\nsamples = 414\nvalue = [8, 406]"] ;
6 -> 7 ;
8 [label="entropy = 0.0\nsamples = 238\nvalue = [0, 238]"] ;
7 -> 8 ;
9 [label="X[7] <= 8173.5\nentropy = 0.267\nsamples = 176\nvalue = [8, 168]"] ;
7 -> 9 ;
10 [label="entropy = 0.401\nsamples = 88\nvalue = [7, 81]"] ;
9 -> 10 ;
11 [label="entropy = 0.09\nsamples = 88\nvalue = [1, 87]"] ;
9 -> 11 ;
12 [label="X[7] <= 2275.5\nentropy = 0.528\nsamples = 117\nvalue = [14, 103]"] ;
6 -> 12 ;
13 [label="entropy = 0.619\nsamples = 65\nvalue = [10, 55]"] ;
12 -> 13 ;
14 [label="entropy = 0.391\nsamples = 52\nvalue = [4, 48]"] ;
12 -> 14 ;
15 [label="X[5] <= 9.5\nentropy = 0.963\nsamples = 851\nvalue = [522, 329]"] ;
1 -> 15 ;
16 [label="X[6] <= 240.0\nentropy = 0.557\nsamples = 131\nvalue = [17, 114]"] ;
15 -> 16 ;
17 [label="entropy = 0.863\nsamples = 56\nvalue = [16, 40]"] ;
16 -> 17 ;
18 [label="entropy = 0.102\nsamples = 75\nvalue = [1, 74]"] ;
16 -> 18 ;
19 [label="X[1] <= 0.5\nentropy = 0.88\nsamples = 720\nvalue = [505, 215]"] ;
15 -> 19 ;
20 [label="X[6] <= 1611.5\nentropy = 0.785\nsamples = 649\nvalue = [497, 152]"] ;
19 -> 20 ;
21 [label="X[3] <= 0.5\nentropy = 0.643\nsamples = 513\nvalue = [429, 84]"] ;
20 -> 21 ;
22 [label="X[7] <= 12.5\nentropy = 0.546\nsamples = 429\nvalue = [375, 54]"] ;
21 -> 22 ;
23 [label="entropy = 0.943\nsamples = 50\nvalue = [32, 18]"] ;
22 -> 23 ;
24 [label="X[7] <= 10033.5\nentropy = 0.453\nsamples = 379\nvalue = [343, 36]"] ;
22 -> 24 ;
25 [label="X[5] <= 285.5\nentropy = 0.332\nsamples = 327\nvalue = [307, 20]"] ;
24 -> 25 ;
26 [label="X[5] <= 132.5\nentropy = 0.406\nsamples = 210\nvalue = [193, 17]"] ;
25 -> 26 ;
27 [label="X[5] <= 42.0\nentropy = 0.331\nsamples = 148\nvalue = [139, 9]"] ;
26 -> 27 ;
28 [label="entropy = 0.523\nsamples = 51\nvalue = [45, 6]"] ;
27 -> 28 ;
29 [label="entropy = 0.199\nsamples = 97\nvalue = [94, 3]"] ;
27 -> 29 ;
30 [label="entropy = 0.555\nsamples = 62\nvalue = [54, 8]"] ;
26 -> 30 ;
31 [label="X[7] <= 1586.5\nentropy = 0.172\nsamples = 117\nvalue = [114, 3]"] ;
25 -> 31 ;
32 [label="entropy = 0.318\nsamples = 52\nvalue = [49, 3]"] ;
31 -> 32 ;
33 [label="entropy = 0.0\nsamples = 65\nvalue = [65, 0]"] ;
31 -> 33 ;
34 [label="entropy = 0.89\nsamples = 52\nvalue = [36, 16]"] ;
24 -> 34 ;
35 [label="entropy = 0.94\nsamples = 84\nvalue = [54, 30]"] ;
21 -> 35 ;
36 [label="X[7] <= 977.0\nentropy = 1.0\nsamples = 136\nvalue = [68, 68]"] ;
20 -> 36 ;
37 [label="entropy = 0.944\nsamples = 58\nvalue = [21, 37]"] ;
36 -> 37 ;
38 [label="entropy = 0.969\nsamples = 78\nvalue = [47, 31]"] ;
36 -> 38 ;
39 [label="entropy = 0.508\nsamples = 71\nvalue = [8, 63]"] ;
19 -> 39 ;
40 [label="X[6] <= 7148.0\nentropy = 0.085\nsamples = 473\nvalue = [468, 5]"] ;
0 -> 40 [labeldistance=2.5, labelangle=-45, headlabel="False"] ;
41 [label="X[5] <= 106280.0\nentropy = 0.043\nsamples = 423\nvalue = [421, 2]"] ;
40 -> 41 ;
42 [label="X[5] <= 13703.5\nentropy = 0.115\nsamples = 130\nvalue = [128, 2]"] ;
41 -> 42 ;
43 [label="entropy = 0.141\nsamples = 50\nvalue = [49, 1]"] ;
42 -> 43 ;
44 [label="entropy = 0.097\nsamples = 80\nvalue = [79, 1]"] ;
42 -> 44 ;
45 [label="entropy = 0.0\nsamples = 293\nvalue = [293, 0]"] ;
41 -> 45 ;
46 [label="entropy = 0.327\nsamples = 50\nvalue = [47, 3]"] ;
40 -> 46 ;
}